svm_type c_svc
kernel_type rbf
gamma 0.1
nr_class 2
total_sv 12
rho -0.131312
label 1 -1
nr_sv 7 5
SV
0.5915918858386199 1:-0.916853 2:0.779521 3:0.998911 4:0.559802 5:-1 6:0.640517 7:0.999423 8:0.326445 9:-1 10:0.37327 
0.2752471045619112 1:-0.898148 2:0.88867 3:0.995394 4:0.61014 5:0.95814 6:0.823286 7:0.975864 8:0.543784 9:-0.433071 10:0.367307 
0.3010510697828049 1:-0.909875 2:1 3:0.923583 4:0.618566 5:-1 6:0.643244 7:0.952201 8:0.311466 9:-0.306292 10:0.371465 
1 1:-0.896882 2:-0.687912 3:1 4:0.528925 5:1 6:0.647439 7:0.07109 8:0.209623 9:1 10:0.373991 
0.0066425655490003 1:-0.997574 2:-0.632182 3:1 4:0.629117 5:1 6:0.916747 7:0.998738 8:0.548834 9:-1 10:0.373299 
1 1:-0.969264 2:0.722179 3:0.983464 4:0.637731 5:-1 6:0.645965 7:0.962958 8:0.283435 9:-1 10:0.37321 
0.05531406867182176 1:-0.996093 2:-0.167339 3:0.999979 4:0.604134 5:0.999991 6:0.655232 7:0.99898 8:0.264593 9:-1 10:0.373296 
-0.527450372339117 1:-0.328472 2:0.820513 3:-0.163205 4:0.527798 5:-0.978472 6:0.606371 7:-0.976292 8:0.112249 9:-0.992525 10:0.314728 
-0.8865094899678387 1:0.578511 2:0.844496 3:-0.185179 4:0.526623 5:-0.291179 6:0.637339 7:-0.220464 8:0.196502 9:-1 10:0.286666 
-0.265343461668041 1:-0.323894 2:-0.167765 3:-0.877188 4:0.153814 5:-0.958102 6:0.275286 7:-0.929229 8:-0.224142 9:-0.959951 10:0.0807918 
-0.9100396112712598 1:0.423941 2:0.681961 3:0.858603 4:0.666123 5:-0.874224 6:0.55787 7:-1 8:-0.607886 9:-0.99856 10:0.171432 
-0.6405037591579016 1:0.332711 2:0.790669 3:-0.898833 4:0.526767 5:0.694657 6:0.647601 7:-0.845743 8:0.198172 9:-0.0118722 10:0.373225 
